digraph Tree {
node [shape=box] ;
0 [label="X[1] <= 2.5\nentropy = 0.925\nsamples = 341\nvalue = [225, 116]"] ;
1 [label="X[5] <= 3.5\nentropy = 0.187\nsamples = 210\nvalue = [204, 6]"] ;
0 -> 1 [labeldistance=2.5, labelangle=45, headlabel="True"] ;
2 [label="entropy = 0.0\nsamples = 200\nvalue = [200, 0]"] ;
1 -> 2 ;
3 [label="X[7] <= 2.0\nentropy = 0.971\nsamples = 10\nvalue = [4, 6]"] ;
1 -> 3 ;
4 [label="entropy = 0.722\nsamples = 5\nvalue = [4, 1]"] ;
3 -> 4 ;
5 [label="entropy = 0.0\nsamples = 5\nvalue = [0, 5]"] ;
3 -> 5 ;
6 [label="X[1] <= 4.5\nentropy = 0.635\nsamples = 131\nvalue = [21, 110]"] ;
0 -> 6 [labeldistance=2.5, labelangle=-45, headlabel="False"] ;
7 [label="X[5] <= 3.5\nentropy = 0.988\nsamples = 46\nvalue = [20, 26]"] ;
6 -> 7 ;
8 [label="X[7] <= 2.5\nentropy = 0.755\nsamples = 23\nvalue = [18, 5]"] ;
7 -> 8 ;
9 [label="entropy = 0.0\nsamples = 13\nvalue = [13, 0]"] ;
8 -> 9 ;
10 [label="X[5] <= 1.5\nentropy = 1.0\nsamples = 10\nvalue = [5, 5]"] ;
8 -> 10 ;
11 [label="entropy = 0.722\nsamples = 5\nvalue = [4, 1]"] ;
10 -> 11 ;
12 [label="entropy = 0.722\nsamples = 5\nvalue = [1, 4]"] ;
10 -> 12 ;
13 [label="X[2] <= 3.5\nentropy = 0.426\nsamples = 23\nvalue = [2, 21]"] ;
7 -> 13 ;
14 [label="entropy = 0.863\nsamples = 7\nvalue = [2, 5]"] ;
13 -> 14 ;
15 [label="entropy = 0.0\nsamples = 16\nvalue = [0, 16]"] ;
13 -> 15 ;
16 [label="X[7] <= 2.5\nentropy = 0.092\nsamples = 85\nvalue = [1, 84]"] ;
6 -> 16 ;
17 [label="X[5] <= 9.0\nentropy = 0.371\nsamples = 14\nvalue = [1, 13]"] ;
16 -> 17 ;
18 [label="entropy = 0.722\nsamples = 5\nvalue = [1, 4]"] ;
17 -> 18 ;
19 [label="entropy = 0.0\nsamples = 9\nvalue = [0, 9]"] ;
17 -> 19 ;
20 [label="entropy = 0.0\nsamples = 71\nvalue = [0, 71]"] ;
16 -> 20 ;
}